{"weightsMatrixes":[[[-2.812146933155402,9.432355870633833],[0.14775321021718762,-1.3920786104356178],[-10.394442905905914,2.576591136890258],[-0.9349870241476954,-0.08419858533642277],[4.794233243709869,-1.5308452324146573]],[[-4.663658512056347,3.676683193882774,-5.814466095310429,-2.4892057573583783,3.579890310322016],[0.254238466300943,-2.028678023443616,-0.4728660559347755,1.7137380884923976,1.2150620691408804],[0.01108414053291129,-1.9957988069341006,5.591207655058261,-6.440543407192932,-0.4735354087815998],[-6.944760523882337,-3.7449569979666997,-7.467465887847639,-8.219068308919049,-11.499734113975133],[-6.6742811107917825,-2.0283137803227897,-4.088731089440575,-0.6760563339386914,-0.49496464024192965]],[[7.251890606823836,10.219018234164864,0.6600129343750074,1.1512618083404036,2.9845601454102777],[6.70394084965917,2.1142912927245736,-2.9192610577292184,-3.0369180011804224,-5.5809507996507985],[-10.995107107560358,-1.5119306551783303,-6.407211522172343,0.18550514228544934,-5.546172122358685],[9.693880577015388,-5.12907087449204,-2.5330623978993523,-2.222450437914355,7.226313654551699],[-4.0408761321469076,-3.3277260919702574,2.874445646460336,0.11855555642226392,0.8367512264034207]],[[-3.8416219970162198,-3.224212748557659,-6.154225450266134,-0.6758886479958086,10.50544815032798]]],"biasVectors":[[1.1919207383205013,0.12105312097837473,0.5866282106364822,-1.6549457461425097,-1.6790295162559477],[1.8786941648207982,0.5021692433403349,-1.9305450369844963,-1.8379722572528019,-0.13228268614865213],[-0.14086160940358994,-2.8695330446119525,2.578510931901496,1.8542548246639923,2.562137459259942],[-1.3109404453151359]]}